FANN_FLO_2.1
num_layers=3
learning_rate=0.700000
connection_rate=1.000000
network_type=0
learning_momentum=0.000000
training_algorithm=2
train_error_function=1
train_stop_function=0
cascade_output_change_fraction=0.010000
quickprop_decay=-0.000100
quickprop_mu=1.750000
rprop_increase_factor=1.200000
rprop_decrease_factor=0.500000
rprop_delta_min=0.000000
rprop_delta_max=50.000000
rprop_delta_zero=0.100000
cascade_output_stagnation_epochs=12
cascade_candidate_change_fraction=0.010000
cascade_candidate_stagnation_epochs=12
cascade_max_out_epochs=150
cascade_min_out_epochs=50
cascade_max_cand_epochs=150
cascade_min_cand_epochs=50
cascade_num_candidate_groups=2
bit_fail_limit=3.49999994039535522461e-01
cascade_candidate_limit=1.00000000000000000000e+03
cascade_weight_multiplier=4.00000005960464477539e-01
cascade_activation_functions_count=10
cascade_activation_functions=3 5 7 8 10 11 14 15 16 17 
cascade_activation_steepnesses_count=4
cascade_activation_steepnesses=2.50000000000000000000e-01 5.00000000000000000000e-01 7.50000000000000000000e-01 1.00000000000000000000e+00 
layer_sizes=7 61 2 
scale_included=0
neurons (num_inputs, activation_function, activation_steepness)=(0, 0, 0.00000000000000000000e+00) (0, 0, 0.00000000000000000000e+00) (0, 0, 0.00000000000000000000e+00) (0, 0, 0.00000000000000000000e+00) (0, 0, 0.00000000000000000000e+00) (0, 0, 0.00000000000000000000e+00) (0, 0, 0.00000000000000000000e+00) (7, 3, 5.00000000000000000000e-01) (7, 3, 5.00000000000000000000e-01) (7, 3, 5.00000000000000000000e-01) (7, 3, 5.00000000000000000000e-01) (7, 3, 5.00000000000000000000e-01) (7, 3, 5.00000000000000000000e-01) (7, 3, 5.00000000000000000000e-01) (7, 3, 5.00000000000000000000e-01) (7, 3, 5.00000000000000000000e-01) (7, 3, 5.00000000000000000000e-01) (7, 3, 5.00000000000000000000e-01) (7, 3, 5.00000000000000000000e-01) (7, 3, 5.00000000000000000000e-01) (7, 3, 5.00000000000000000000e-01) (7, 3, 5.00000000000000000000e-01) (7, 3, 5.00000000000000000000e-01) (7, 3, 5.00000000000000000000e-01) (7, 3, 5.00000000000000000000e-01) (7, 3, 5.00000000000000000000e-01) (7, 3, 5.00000000000000000000e-01) (7, 3, 5.00000000000000000000e-01) (7, 3, 5.00000000000000000000e-01) (7, 3, 5.00000000000000000000e-01) (7, 3, 5.00000000000000000000e-01) (7, 3, 5.00000000000000000000e-01) (7, 3, 5.00000000000000000000e-01) (7, 3, 5.00000000000000000000e-01) (7, 3, 5.00000000000000000000e-01) (7, 3, 5.00000000000000000000e-01) (7, 3, 5.00000000000000000000e-01) (7, 3, 5.00000000000000000000e-01) (7, 3, 5.00000000000000000000e-01) (7, 3, 5.00000000000000000000e-01) (7, 3, 5.00000000000000000000e-01) (7, 3, 5.00000000000000000000e-01) (7, 3, 5.00000000000000000000e-01) (7, 3, 5.00000000000000000000e-01) (7, 3, 5.00000000000000000000e-01) (7, 3, 5.00000000000000000000e-01) (7, 3, 5.00000000000000000000e-01) (7, 3, 5.00000000000000000000e-01) (7, 3, 5.00000000000000000000e-01) (7, 3, 5.00000000000000000000e-01) (7, 3, 5.00000000000000000000e-01) (7, 3, 5.00000000000000000000e-01) (7, 3, 5.00000000000000000000e-01) (7, 3, 5.00000000000000000000e-01) (7, 3, 5.00000000000000000000e-01) (7, 3, 5.00000000000000000000e-01) (7, 3, 5.00000000000000000000e-01) (7, 3, 5.00000000000000000000e-01) (7, 3, 5.00000000000000000000e-01) (7, 3, 5.00000000000000000000e-01) (7, 3, 5.00000000000000000000e-01) (7, 3, 5.00000000000000000000e-01) (7, 3, 5.00000000000000000000e-01) (7, 3, 5.00000000000000000000e-01) (7, 3, 5.00000000000000000000e-01) (7, 3, 5.00000000000000000000e-01) (7, 3, 5.00000000000000000000e-01) (0, 3, 0.00000000000000000000e+00) (61, 3, 5.00000000000000000000e-01) (0, 3, 0.00000000000000000000e+00) 
connections (connected_to_neuron, weight)=(0, -7.65382498502731323242e-02) (1, 2.16615572571754455566e-02) (2, 6.58344700932502746582e-02) (3, 7.99479857087135314941e-02) (4, 8.57252106070518493652e-02) (5, -1.63603946566581726074e-02) (6, 3.08476611971855163574e-02) (0, 5.66239878535270690918e-02) (1, 7.92633369565010070801e-02) (2, -2.10912376642227172852e-02) (3, -8.04464593529701232910e-02) (4, -6.36155828833580017090e-02) (5, 1.29018872976303100586e-02) (6, 4.21443507075309753418e-02) (0, -7.98840224742889404297e-02) (1, -1.07890516519546508789e-02) (2, 6.84862807393074035645e-02) (3, 4.89451959729194641113e-02) (4, 2.16954350471496582031e-02) (5, 3.52607443928718566895e-02) (6, 2.74150297045707702637e-02) (0, -3.56057137250900268555e-02) (1, -2.52519845962524414062e-02) (2, -1.01530477404594421387e-02) (3, -4.22726683318614959717e-02) (4, -7.67768993973731994629e-02) (5, 1.06598362326622009277e-02) (6, -4.01284396648406982422e-02) (0, -3.87084595859050750732e-02) (1, 2.69546583294868469238e-02) (2, 2.68934443593025207520e-02) (3, -1.81078910827636718750e-03) (4, -3.39145511388778686523e-02) (5, -1.94813311100006103516e-03) (6, 5.77917471528053283691e-02) (0, -9.41075012087821960449e-02) (1, -6.47258162498474121094e-02) (2, -4.67167384922504425049e-02) (3, 3.18063125014305114746e-02) (4, -3.12139689922332763672e-02) (5, -1.32107511162757873535e-02) (6, -3.30776795744895935059e-02) (0, 6.34446218609809875488e-02) (1, -8.64206776022911071777e-02) (2, -7.22860917448997497559e-02) (3, 8.76343473792076110840e-02) (4, 7.04622194170951843262e-02) (5, 5.84995970129966735840e-02) (6, 2.74546444416046142578e-03) (0, -5.71222864091396331787e-02) (1, -5.42955212295055389404e-02) (2, 5.52329644560813903809e-02) (3, -9.94978696107864379883e-02) (4, -6.06162808835506439209e-02) (5, 2.21675038337707519531e-02) (6, -3.08544635772705078125e-02) (0, 2.90765836834907531738e-02) (1, 9.02635082602500915527e-02) (2, 5.87237700819969177246e-02) (3, -2.95402035117149353027e-02) (4, -8.22264775633811950684e-02) (5, 1.95572972297668457031e-02) (6, 9.94626060128211975098e-02) (0, 6.80129900574684143066e-02) (1, 9.43596437573432922363e-02) (2, -9.74157601594924926758e-02) (3, -6.66856765747070312500e-02) (4, 1.38403326272964477539e-02) (5, 1.44384875893592834473e-02) (6, 6.76539763808250427246e-02) (0, 6.05028793215751647949e-02) (1, 7.17484429478645324707e-02) (2, 7.60882273316383361816e-02) (3, 1.48819684982299804688e-02) (4, -7.87529870867729187012e-02) (5, -1.43344700336456298828e-03) (6, -9.20369327068328857422e-02) (0, -6.46919459104537963867e-02) (1, -7.74375945329666137695e-02) (2, -9.36370491981506347656e-02) (3, 4.20750454068183898926e-02) (4, -4.47248220443725585938e-02) (5, -9.01024490594863891602e-02) (6, 4.81152608990669250488e-02) (0, 7.31003060936927795410e-02) (1, -3.19169461727142333984e-03) (2, -4.28200662136077880859e-02) (3, -7.68571048974990844727e-02) (4, 6.27133026719093322754e-02) (5, 2.24667564034461975098e-02) (6, -1.19756162166595458984e-03) (0, 7.26233050227165222168e-02) (1, -2.02801823616027832031e-02) (2, -4.90149371325969696045e-02) (3, 5.97236305475234985352e-03) (4, -2.25449651479721069336e-02) (5, 8.67995396256446838379e-02) (6, 3.98545637726783752441e-02) (0, 3.55652049183845520020e-02) (1, -5.56609220802783966064e-02) (2, -9.31060984730720520020e-02) (3, -3.42110693454742431641e-02) (4, 1.45392417907714843750e-02) (5, -3.89560647308826446533e-02) (6, 6.54158517718315124512e-02) (0, 4.41907122731208801270e-02) (1, -8.65975245833396911621e-02) (2, -4.45126071572303771973e-02) (3, 7.66009762883186340332e-02) (4, 3.27679589390754699707e-02) (5, -6.90210759639739990234e-02) (6, -3.72203513979911804199e-02) (0, 3.75185534358024597168e-02) (1, -2.58309841156005859375e-02) (2, 5.86161091923713684082e-02) (3, -3.89795601367950439453e-02) (4, 7.05379471182823181152e-02) (5, -6.86024874448776245117e-02) (6, -2.00780481100082397461e-03) (0, 5.48112168908119201660e-02) (1, 1.21908038854598999023e-02) (2, 9.08135995268821716309e-02) (3, -9.57232564687728881836e-02) (4, -2.07370072603225708008e-02) (5, 7.32213333249092102051e-02) (6, 3.10428962111473083496e-02) (0, -6.20032213628292083740e-02) (1, -8.81489738821983337402e-02) (2, 8.01929309964179992676e-02) (3, 2.47527658939361572266e-03) (4, 1.88834965229034423828e-03) (5, -6.25034719705581665039e-02) (6, -9.57529395818710327148e-02) (0, 8.03679600358009338379e-02) (1, -5.56989647448062896729e-02) (2, 6.75374493002891540527e-02) (3, -9.81227383017539978027e-02) (4, 5.11952862143516540527e-02) (5, 3.92767712473869323730e-02) (6, -7.54031687974929809570e-02) (0, 9.89656969904899597168e-02) (1, -8.36120843887329101562e-02) (2, -6.82818442583084106445e-02) (3, -1.29624605178833007812e-02) (4, -6.01029843091964721680e-02) (5, 4.91633787751197814941e-02) (6, 8.88628438115119934082e-02) (0, -8.21152776479721069336e-02) (1, 8.85725393891334533691e-02) (2, 3.86490747332572937012e-02) (3, -2.49936133623123168945e-02) (4, -6.76357150077819824219e-02) (5, 4.65506389737129211426e-02) (6, -2.33986675739288330078e-02) (0, -6.13614879548549652100e-02) (1, 9.74738076329231262207e-02) (2, 4.23318222165107727051e-02) (3, 7.09825083613395690918e-02) (4, 2.87380069494247436523e-03) (5, 9.99017879366874694824e-02) (6, 4.91870716214179992676e-02) (0, 8.69620814919471740723e-02) (1, -2.83684656023979187012e-02) (2, 1.11334472894668579102e-02) (3, -8.02804529666900634766e-02) (4, -7.35885053873062133789e-02) (5, -2.08027660846710205078e-03) (6, 3.68168428540229797363e-02) (0, -1.91645547747611999512e-02) (1, -9.86636430025100708008e-02) (2, -3.98041084408760070801e-02) (3, 1.24062523245811462402e-02) (4, -8.80693420767784118652e-02) (5, 1.85552835464477539062e-02) (6, 5.87047114968299865723e-02) (0, 5.00998869538307189941e-02) (1, 2.88763418793678283691e-02) (2, -7.53382444381713867188e-02) (3, -9.84746962785720825195e-03) (4, 9.35770943760871887207e-02) (5, -4.95979972183704376221e-02) (6, 6.49088621139526367188e-03) (0, 9.23128649592399597168e-02) (1, -9.76583436131477355957e-02) (2, 5.62517866492271423340e-02) (3, 2.37152576446533203125e-02) (4, -1.76215320825576782227e-02) (5, 3.48498895764350891113e-02) (6, -7.79408365488052368164e-02) (0, 4.83900383114814758301e-02) (1, 9.13531556725502014160e-02) (2, -2.76316404342651367188e-02) (3, -4.97238337993621826172e-03) (4, 2.91094556450843811035e-02) (5, 4.25171628594398498535e-02) (6, -1.40239223837852478027e-02) (0, 9.99309048056602478027e-02) (1, -6.12375400960445404053e-02) (2, -1.93157419562339782715e-02) (3, -3.96806895732879638672e-02) (4, 8.66758599877357482910e-02) (5, -3.88510301709175109863e-02) (6, 3.07285711169242858887e-02) (0, 5.50691708922386169434e-02) (1, -5.23653365671634674072e-02) (2, 9.57840010523796081543e-02) (3, 4.15647700428962707520e-02) (4, -2.07475572824478149414e-02) (5, 9.57944169640541076660e-02) (6, 1.67705789208412170410e-02) (0, 6.31004944443702697754e-02) (1, -7.00997337698936462402e-02) (2, 3.38139012455940246582e-02) (3, -8.98624658584594726562e-02) (4, 8.16209241747856140137e-02) (5, 2.81924009323120117188e-03) (6, -1.69918164610862731934e-02) (0, 1.85398235917091369629e-02) (1, -1.19648873805999755859e-03) (2, 9.06161144375801086426e-02) (3, -1.49052366614341735840e-02) (4, 8.76208022236824035645e-02) (5, 4.26256582140922546387e-02) (6, 9.33384895324707031250e-03) (0, 7.39689096808433532715e-02) (1, -4.57276403903961181641e-03) (2, -5.44507168233394622803e-02) (3, 4.67760935425758361816e-02) (4, -3.41383367776870727539e-02) (5, 3.70650812983512878418e-02) (6, -4.72213737666606903076e-02) (0, -4.96253557503223419189e-02) (1, -5.33020459115505218506e-02) (2, -4.75103147327899932861e-02) (3, 9.41469594836235046387e-02) (4, -7.20786154270172119141e-02) (5, -2.52689123153686523438e-02) (6, -9.46509614586830139160e-02) (0, 1.28297507762908935547e-03) (1, -3.69650721549987792969e-02) (2, -7.20157399773597717285e-02) (3, 3.14709469676017761230e-02) (4, -6.78825080394744873047e-02) (5, 9.87017229199409484863e-02) (6, 7.97976329922676086426e-02) (0, -4.13186363875865936279e-02) (1, -4.23134826123714447021e-02) (2, 3.73326167464256286621e-02) (3, 4.93674352765083312988e-02) (4, -8.15970972180366516113e-02) (5, -2.43001431226730346680e-03) (6, -4.13045659661293029785e-02) (0, -5.86164742708206176758e-03) (1, 8.32955613732337951660e-02) (2, -5.15173487365245819092e-02) (3, -5.20814023911952972412e-02) (4, 6.79001286625862121582e-02) (5, -2.57538259029388427734e-03) (6, -8.45076516270637512207e-02) (0, 7.98945352435111999512e-02) (1, -1.26449316740036010742e-02) (2, 7.66293480992317199707e-02) (3, -9.06343385577201843262e-02) (4, -9.12591964006423950195e-02) (5, 6.72216713428497314453e-03) (6, -2.05877870321273803711e-02) (0, -1.90346390008926391602e-02) (1, 8.48104283213615417480e-02) (2, 8.78728926181793212891e-03) (3, 8.78822579979896545410e-02) (4, 3.70459035038948059082e-02) (5, 3.04605588316917419434e-02) (6, -4.92771267890930175781e-02) (0, -6.49198889732360839844e-04) (1, 8.89166072010993957520e-02) (2, 2.13482752442359924316e-02) (3, 3.75315546989440917969e-04) (4, -9.19252485036849975586e-02) (5, 1.23954191803932189941e-02) (6, -7.01764374971389770508e-02) (0, -5.53143434226512908936e-02) (1, -6.81742578744888305664e-02) (2, -4.62975353002548217773e-03) (3, -1.23106613755226135254e-02) (4, 9.47306081652641296387e-02) (5, -6.27954006195068359375e-02) (6, -2.20087170600891113281e-03) (0, 9.91243124008178710938e-03) (1, -1.68902426958084106445e-03) (2, 1.25730037689208984375e-02) (3, -8.55701714754104614258e-02) (4, 2.21922993659973144531e-02) (5, -1.39813348650932312012e-02) (6, 1.56695991754531860352e-02) (0, -4.11287136375904083252e-02) (1, -5.02692982554435729980e-02) (2, -7.60859996080398559570e-02) (3, 2.26251259446144104004e-02) (4, 6.04488924145698547363e-02) (5, -3.56204658746719360352e-02) (6, -7.30708390474319458008e-02) (0, 9.84005108475685119629e-02) (1, 1.74421519041061401367e-02) (2, -4.97441999614238739014e-02) (3, -5.08059263229370117188e-02) (4, -9.51798483729362487793e-02) (5, -8.76630470156669616699e-02) (6, 4.72409054636955261230e-02) (0, -2.20788046717643737793e-02) (1, -7.84835964441299438477e-02) (2, -7.37974420189857482910e-02) (3, 8.63968804478645324707e-02) (4, 7.24932476878166198730e-02) (5, -6.15850836038589477539e-03) (6, 9.39851477742195129395e-02) (0, 8.54138284921646118164e-03) (1, -4.49807345867156982422e-02) (2, 8.79893451929092407227e-03) (3, 8.35743620991706848145e-02) (4, 3.42081859707832336426e-02) (5, -6.29422068595886230469e-02) (6, -6.96484893560409545898e-02) (0, 1.79084986448287963867e-02) (1, -1.17966085672378540039e-02) (2, -6.56589865684509277344e-02) (3, 6.95288404822349548340e-02) (4, -2.87344306707382202148e-02) (5, 6.05041012167930603027e-02) (6, 9.24695357680320739746e-02) (0, -6.44638836383819580078e-02) (1, -4.44669909775257110596e-02) (2, 4.33362945914268493652e-02) (3, -4.68956828117370605469e-02) (4, 2.43047922849655151367e-02) (5, 9.06339511275291442871e-02) (6, 8.47867801785469055176e-02) (0, 1.15270391106605529785e-02) (1, -6.50136619806289672852e-02) (2, -8.46244618296623229980e-02) (3, -8.33157598972320556641e-02) (4, -8.80343765020370483398e-02) (5, 6.22013956308364868164e-03) (6, -5.81667535006999969482e-02) (0, -8.58819484710693359375e-03) (1, 5.82521781325340270996e-02) (2, 4.44311127066612243652e-02) (3, -4.62563037872314453125e-02) (4, -2.96895056962966918945e-02) (5, 8.48927348852157592773e-03) (6, 7.91530683636665344238e-02) (0, -7.44553059339523315430e-02) (1, 2.96357944607734680176e-02) (2, 8.89143422245979309082e-02) (3, -1.65689215064048767090e-02) (4, -7.39006698131561279297e-02) (5, -4.85902205109596252441e-02) (6, -5.57637214660644531250e-02) (0, -2.08882465958595275879e-02) (1, -6.87802657485008239746e-02) (2, 1.00691094994544982910e-02) (3, 3.15899625420570373535e-02) (4, -6.75376579165458679199e-02) (5, 9.45883467793464660645e-02) (6, -5.36604188382625579834e-02) (0, -7.06402659416198730469e-02) (1, -5.09964115917682647705e-02) (2, -9.66501086950302124023e-02) (3, 1.64353847503662109375e-03) (4, 2.29331627488136291504e-02) (5, 3.76563146710395812988e-02) (6, 8.98461118340492248535e-02) (0, 4.35248091816902160645e-02) (1, -7.84010440111160278320e-02) (2, -8.63183513283729553223e-02) (3, 4.74771633744239807129e-02) (4, -5.14141879975795745850e-02) (5, 8.17192271351814270020e-02) (6, 5.50284013152122497559e-02) (0, 6.23875185847282409668e-02) (1, -5.31022287905216217041e-02) (2, -8.91463980078697204590e-02) (3, -8.34282785654067993164e-02) (4, 2.10021138191223144531e-02) (5, -1.75393968820571899414e-02) (6, 1.52742862701416015625e-02) (0, -8.50227996706962585449e-02) (1, 2.18451842665672302246e-02) (2, -4.79980371892452239990e-02) (3, 9.70238074660301208496e-02) (4, 7.90631845593452453613e-02) (5, 1.49708986282348632812e-02) (6, 1.59160643815994262695e-02) (0, -9.88067761063575744629e-02) (1, -4.54515777528285980225e-02) (2, 9.53926220536231994629e-02) (3, 6.36892542243003845215e-02) (4, 2.52250358462333679199e-02) (5, -4.29827757179737091064e-02) (6, -1.15079134702682495117e-02) (0, -1.35307461023330688477e-02) (1, -1.11880153417587280273e-02) (2, -3.70435863733291625977e-02) (3, 8.36292654275894165039e-03) (4, -4.43710088729858398438e-02) (5, 5.64104840159416198730e-02) (6, 9.09278169274330139160e-02) (0, 2.38096341490745544434e-02) (1, -3.14356237649917602539e-02) (2, 6.14484474062919616699e-02) (3, -3.60809192061424255371e-02) (4, -1.20727717876434326172e-02) (5, 9.28939506411552429199e-02) (6, 6.85798451304435729980e-02) (0, 2.14850306510925292969e-02) (1, 9.90065857768058776855e-02) (2, 3.68088483810424804688e-03) (3, 6.45821914076805114746e-02) (4, 3.29799279570579528809e-02) (5, 9.37222167849540710449e-02) (6, -1.06884613633155822754e-02) (7, -4.08958680927753448486e-02) (8, 6.31735995411872863770e-02) (9, -4.12674061954021453857e-02) (10, 1.86982750892639160156e-02) (11, 6.18649646639823913574e-02) (12, -3.55955436825752258301e-02) (13, -5.42536489665508270264e-02) (14, -4.10199128091335296631e-02) (15, -2.15880349278450012207e-02) (16, -3.00445035099983215332e-02) (17, 4.20300588011741638184e-02) (18, -8.66360962390899658203e-04) (19, 3.91112044453620910645e-02) (20, -5.78464902937412261963e-02) (21, -2.59354263544082641602e-02) (22, -9.67273786664009094238e-02) (23, -9.70234796404838562012e-02) (24, -7.36348181962966918945e-02) (25, 1.96389555931091308594e-02) (26, 7.19354227185249328613e-02) (27, 1.85382738709449768066e-02) (28, -2.71925553679466247559e-02) (29, -2.53009796142578125000e-02) (30, -3.35434451699256896973e-02) (31, 3.53425964713096618652e-02) (32, 2.96986103057861328125e-03) (33, -8.54994654655456542969e-02) (34, 1.05716958642005920410e-02) (35, 7.83836916089057922363e-02) (36, -5.39234280586242675781e-03) (37, -2.91470587253570556641e-02) (38, -7.46389180421829223633e-02) (39, -5.63563816249370574951e-02) (40, 1.82849764823913574219e-02) (41, -8.43476802110671997070e-02) (42, -3.14690098166465759277e-02) (43, -9.96724963188171386719e-02) (44, 4.35280799865722656250e-03) (45, -4.23739328980445861816e-02) (46, 2.13055387139320373535e-02) (47, 8.21728929877281188965e-02) (48, 7.98702314496040344238e-02) (49, -2.12064534425735473633e-02) (50, -1.68326497077941894531e-02) (51, 9.36100557446479797363e-02) (52, -9.58260223269462585449e-02) (53, 5.20740821957588195801e-02) (54, 9.21648740768432617188e-03) (55, -9.85438078641891479492e-02) (56, -2.57771983742713928223e-02) (57, -3.73458862304687500000e-02) (58, -7.23031237721443176270e-02) (59, 1.39428675174713134766e-03) (60, 3.37062254548072814941e-02) (61, -9.94333028793334960938e-02) (62, 2.45505124330520629883e-02) (63, 2.04900503158569335938e-02) (64, -2.37844437360763549805e-02) (65, 5.48484697937965393066e-02) (66, 3.81203368306159973145e-02) (67, 8.84959325194358825684e-02) 
